<?xml version="1.0"?>
<opencv_storage>
<cascade>
  <stageType>BOOST</stageType>
  <featureType>HAAR</featureType>
  <height>32</height>
  <width>32</width>
  <stageParams>
    <boostType>GAB</boostType>
    <minHitRate>9.9500000476837158e-01</minHitRate>
    <maxFalseAlarm>5.0000000000000000e-01</maxFalseAlarm>
    <weightTrimRate>9.4999998807907104e-01</weightTrimRate>
    <maxDepth>1</maxDepth>
    <maxWeakCount>100</maxWeakCount></stageParams>
  <featureParams>
    <maxCatCount>0</maxCatCount>
    <featSize>1</featSize>
    <mode>BASIC</mode></featureParams>
  <stageNum>15</stageNum>
  <stages>
    <!-- stage 0 -->
    <_>
      <maxWeakCount>6</maxWeakCount>
      <stageThreshold>-1.9806936979293823e+00</stageThreshold>
      <weakClassifiers>
        <_>
          <internalNodes>
            0 -1 77 -5.8435171842575073e-02</internalNodes>
          <leafValues>
            1.1314984411001205e-01 -9.5876288414001465e-01</leafValues></_>
        <_>
          <internalNodes>
            0 -1 82 -1.3619868084788322e-02</internalNodes>
          <leafValues>
            7.3349297046661377e-02 -8.9252167940139771e-01</leafValues></_>
        <_>
          <internalNodes>
            0 -1 49 2.5949507951736450e-02</internalNodes>
          <leafValues>
            -5.4523020982742310e-01 4.7623211145401001e-01</leafValues></_>
        <_>
          <internalNodes>
            0 -1 25 -1.2817997485399246e-02</internalNodes>
          <leafValues>
            5.2394282817840576e-01 -4.3946495652198792e-01</leafValues></_>
        <_>
          <internalNodes>
            0 -1 79 -7.8746024519205093e-03</internalNodes>
          <leafValues>
            4.7387444972991943e-01 -4.8424598574638367e-01</leafValues></_>
        <_>
          <internalNodes>
            0 -1 30 8.2901402493007481e-05</internalNodes>
          <leafValues>
            3.7612429261207581e-01 -7.0120257139205933e-01</leafValues></_></weakClassifiers></_>
    <!-- stage 1 -->
    <_>
      <maxWeakCount>5</maxWeakCount>
      <stageThreshold>-1.4208633899688721e+00</stageThreshold>
      <weakClassifiers>
        <_>
          <internalNodes>
            0 -1 78 -6.2318451702594757e-02</internalNodes>
          <leafValues>
            -2.1929824352264404e-01 -9.4086021184921265e-01</leafValues></_>
        <_>
          <internalNodes>
            0 -1 87 -4.9901694059371948e-02</internalNodes>
          <leafValues>
            5.2696835994720459e-01 -5.2516436576843262e-01</leafValues></_>
        <_>
          <internalNodes>
            0 -1 83 -1.3887589797377586e-02</internalNodes>
          <leafValues>
            2.6916164159774780e-01 -7.3888295888900757e-01</leafValues></_>
        <_>
          <internalNodes>
            0 -1 30 -8.1012200098484755e-05</internalNodes>
          <leafValues>
            -6.1384451389312744e-01 3.1617659330368042e-01</leafValues></_>
        <_>
          <internalNodes>
            0 -1 37 -9.5500536262989044e-03</internalNodes>
          <leafValues>
            7.3614478111267090e-01 -2.5369441509246826e-01</leafValues></_></weakClassifiers></_>
    <!-- stage 2 -->
    <_>
      <maxWeakCount>8</maxWeakCount>
      <stageThreshold>-1.3497040271759033e+00</stageThreshold>
      <weakClassifiers>
        <_>
          <internalNodes>
            0 -1 54 -1.5557515621185303e-01</internalNodes>
          <leafValues>
            5.0495052337646484e-01 -7.7434033155441284e-01</leafValues></_>
        <_>
          <internalNodes>
            0 -1 44 -1.7751237377524376e-02</internalNodes>
          <leafValues>
            6.4576995372772217e-01 -4.9001094698905945e-01</leafValues></_>
        <_>
          <internalNodes>
            0 -1 63 1.0546891018748283e-02</internalNodes>
          <leafValues>
            -2.7996838092803955e-01 7.6654219627380371e-01</leafValues></_>
        <_>
          <internalNodes>
            0 -1 8 -1.5798151434864849e-04</internalNodes>
          <leafValues>
            -8.8144880533218384e-01 2.8314805030822754e-01</leafValues></_>
        <_>
          <internalNodes>
            0 -1 17 -5.3324445616453886e-05</internalNodes>
          <leafValues>
            -6.8418836593627930e-01 2.7150356769561768e-01</leafValues></_>
        <_>
          <internalNodes>
            0 -1 56 1.0369449853897095e-02</internalNodes>
          <leafValues>
            -3.0176800489425659e-01 7.2781729698181152e-01</leafValues></_>
        <_>
          <internalNodes>
            0 -1 18 1.8428283510729671e-04</internalNodes>
          <leafValues>
            2.8378626704216003e-01 -7.7809482812881470e-01</leafValues></_>
        <_>
          <internalNodes>
            0 -1 16 1.0178931057453156e-02</internalNodes>
          <leafValues>
            -3.2668378949165344e-01 6.4980745315551758e-01</leafValues></_></weakClassifiers></_>
    <!-- stage 3 -->
    <_>
      <maxWeakCount>7</maxWeakCount>
      <stageThreshold>-1.4099943637847900e+00</stageThreshold>
      <weakClassifiers>
        <_>
          <internalNodes>
            0 -1 39 -1.0178712755441666e-01</internalNodes>
          <leafValues>
            4.4186046719551086e-01 -7.5224417448043823e-01</leafValues></_>
        <_>
          <internalNodes>
            0 -1 55 2.2053964436054230e-02</internalNodes>
          <leafValues>
            -5.0959819555282593e-01 5.9049528837203979e-01</leafValues></_>
        <_>
          <internalNodes>
            0 -1 9 1.2265678378753364e-04</internalNodes>
          <leafValues>
            3.3893364667892456e-01 -7.0241022109985352e-01</leafValues></_>
        <_>
          <internalNodes>
            0 -1 53 3.0089236795902252e-02</internalNodes>
          <leafValues>
            -6.6251128911972046e-01 3.1289830803871155e-01</leafValues></_>
        <_>
          <internalNodes>
            0 -1 4 -4.1899525967892259e-05</internalNodes>
          <leafValues>
            -7.4300235509872437e-01 2.5167062878608704e-01</leafValues></_>
        <_>
          <internalNodes>
            0 -1 64 2.3315086960792542e-02</internalNodes>
          <leafValues>
            -3.2073482871055603e-01 6.4662224054336548e-01</leafValues></_>
        <_>
          <internalNodes>
            0 -1 10 -6.2640167016070336e-05</internalNodes>
          <leafValues>
            -6.4340329170227051e-01 3.1847676634788513e-01</leafValues></_></weakClassifiers></_>
    <!-- stage 4 -->
    <_>
      <maxWeakCount>8</maxWeakCount>
      <stageThreshold>-1.6068608760833740e+00</stageThreshold>
      <weakClassifiers>
        <_>
          <internalNodes>
            0 -1 69 -1.2341091036796570e-01</internalNodes>
          <leafValues>
            4.2857143282890320e-01 -7.7941179275512695e-01</leafValues></_>
        <_>
          <internalNodes>
            0 -1 61 2.5783708319067955e-02</internalNodes>
          <leafValues>
            -4.5424601435661316e-01 6.3642400503158569e-01</leafValues></_>
        <_>
          <internalNodes>
            0 -1 2 -1.7961270350497216e-04</internalNodes>
          <leafValues>
            -7.8210538625717163e-01 2.1095593273639679e-01</leafValues></_>
        <_>
          <internalNodes>
            0 -1 2 1.8050988728646189e-04</internalNodes>
          <leafValues>
            2.2183439135551453e-01 -6.7873448133468628e-01</leafValues></_>
        <_>
          <internalNodes>
            0 -1 40 7.3304087854921818e-03</internalNodes>
          <leafValues>
            -3.1361818313598633e-01 5.5124199390411377e-01</leafValues></_>
        <_>
          <internalNodes>
            0 -1 23 -1.5084774233400822e-02</internalNodes>
          <leafValues>
            5.3621804714202881e-01 -3.3792176842689514e-01</leafValues></_>
        <_>
          <internalNodes>
            0 -1 84 -3.1788565218448639e-02</internalNodes>
          <leafValues>
            2.6621463894844055e-01 -7.5760233402252197e-01</leafValues></_>
        <_>
          <internalNodes>
            0 -1 21 -4.1258394718170166e-02</internalNodes>
          <leafValues>
            7.7403533458709717e-01 -2.7099093794822693e-01</leafValues></_></weakClassifiers></_>
    <!-- stage 5 -->
    <_>
      <maxWeakCount>5</maxWeakCount>
      <stageThreshold>-1.3117045164108276e+00</stageThreshold>
      <weakClassifiers>
        <_>
          <internalNodes>
            0 -1 38 1.1674272269010544e-01</internalNodes>
          <leafValues>
            -7.8145086765289307e-01 4.5945945382118225e-01</leafValues></_>
        <_>
          <internalNodes>
            0 -1 45 -1.5229326486587524e-01</internalNodes>
          <leafValues>
            -8.2017338275909424e-01 1.4996598660945892e-01</leafValues></_>
        <_>
          <internalNodes>
            0 -1 4 6.5629734308458865e-05</internalNodes>
          <leafValues>
            3.1888321042060852e-01 -6.6359674930572510e-01</leafValues></_>
        <_>
          <internalNodes>
            0 -1 73 4.1121691465377808e-03</internalNodes>
          <leafValues>
            2.8978234529495239e-01 -6.5166825056076050e-01</leafValues></_>
        <_>
          <internalNodes>
            0 -1 29 -9.7669571638107300e-02</internalNodes>
          <leafValues>
            7.8224265575408936e-01 -3.0640527606010437e-01</leafValues></_></weakClassifiers></_>
    <!-- stage 6 -->
    <_>
      <maxWeakCount>5</maxWeakCount>
      <stageThreshold>-1.4908366203308105e+00</stageThreshold>
      <weakClassifiers>
        <_>
          <internalNodes>
            0 -1 66 -9.0038686990737915e-02</internalNodes>
          <leafValues>
            2.0253165066242218e-01 -7.9846447706222534e-01</leafValues></_>
        <_>
          <internalNodes>
            0 -1 7 1.5404986334033310e-04</internalNodes>
          <leafValues>
            1.1376396566629410e-01 -7.8113061189651489e-01</leafValues></_>
        <_>
          <internalNodes>
            0 -1 52 6.5098844468593597e-02</internalNodes>
          <leafValues>
            -4.8076075315475464e-01 3.8634273409843445e-01</leafValues></_>
        <_>
          <internalNodes>
            0 -1 20 -9.2976942658424377e-02</internalNodes>
          <leafValues>
            5.9118580818176270e-01 -3.4572300314903259e-01</leafValues></_>
        <_>
          <internalNodes>
            0 -1 89 4.0933163836598396e-04</internalNodes>
          <leafValues>
            2.5860562920570374e-01 -8.4675580263137817e-01</leafValues></_></weakClassifiers></_>
    <!-- stage 7 -->
    <_>
      <maxWeakCount>5</maxWeakCount>
      <stageThreshold>-1.1149998903274536e+00</stageThreshold>
      <weakClassifiers>
        <_>
          <internalNodes>
            0 -1 70 -9.6079573035240173e-02</internalNodes>
          <leafValues>
            6.6101694107055664e-01 -7.3531991243362427e-01</leafValues></_>
        <_>
          <internalNodes>
            0 -1 19 -2.8954044682905078e-04</internalNodes>
          <leafValues>
            -8.3521860837936401e-01 1.3040797412395477e-01</leafValues></_>
        <_>
          <internalNodes>
            0 -1 90 -6.0319493059068918e-04</internalNodes>
          <leafValues>
            -8.2035219669342041e-01 2.0170259475708008e-01</leafValues></_>
        <_>
          <internalNodes>
            0 -1 91 4.5666389632970095e-04</internalNodes>
          <leafValues>
            2.3173329234123230e-01 -8.4705287218093872e-01</leafValues></_>
        <_>
          <internalNodes>
            0 -1 6 -2.8304188163019717e-04</internalNodes>
          <leafValues>
            -9.1140490770339966e-01 1.3526235520839691e-01</leafValues></_></weakClassifiers></_>
    <!-- stage 8 -->
    <_>
      <maxWeakCount>4</maxWeakCount>
      <stageThreshold>-1.7236855030059814e+00</stageThreshold>
      <weakClassifiers>
        <_>
          <internalNodes>
            0 -1 1 1.0034167644334957e-05</internalNodes>
          <leafValues>
            -8.8353413343429565e-01 3.9215686917304993e-01</leafValues></_>
        <_>
          <internalNodes>
            0 -1 24 1.0909094271482900e-05</internalNodes>
          <leafValues>
            -7.5721508264541626e-01 4.8511850833892822e-01</leafValues></_>
        <_>
          <internalNodes>
            0 -1 34 9.2308018793119118e-06</internalNodes>
          <leafValues>
            -5.8027642965316772e-01 6.7546880245208740e-01</leafValues></_>
        <_>
          <internalNodes>
            0 -1 93 -1.2033747225359548e-05</internalNodes>
          <leafValues>
            4.9734008312225342e-01 -6.5869385004043579e-01</leafValues></_></weakClassifiers></_>
    <!-- stage 9 -->
    <_>
      <maxWeakCount>6</maxWeakCount>
      <stageThreshold>-1.7089797258377075e+00</stageThreshold>
      <weakClassifiers>
        <_>
          <internalNodes>
            0 -1 97 -3.8939841033425182e-05</internalNodes>
          <leafValues>
            -3.6146789789199829e-01 -9.2061066627502441e-01</leafValues></_>
        <_>
          <internalNodes>
            0 -1 96 -9.4722417998127639e-06</internalNodes>
          <leafValues>
            1.4836153388023376e-01 -7.4619370698928833e-01</leafValues></_>
        <_>
          <internalNodes>
            0 -1 81 -3.8422886282205582e-03</internalNodes>
          <leafValues>
            2.5704765319824219e-01 -7.1448469161987305e-01</leafValues></_>
        <_>
          <internalNodes>
            0 -1 13 3.3151409297715873e-05</internalNodes>
          <leafValues>
            -5.2829629182815552e-01 3.6088696122169495e-01</leafValues></_>
        <_>
          <internalNodes>
            0 -1 86 -2.6618279516696930e-03</internalNodes>
          <leafValues>
            -7.7911835908889771e-01 2.6297986507415771e-01</leafValues></_>
        <_>
          <internalNodes>
            0 -1 3 5.6404835777357221e-04</internalNodes>
          <leafValues>
            -4.1403353214263916e-01 3.7848299741744995e-01</leafValues></_></weakClassifiers></_>
    <!-- stage 10 -->
    <_>
      <maxWeakCount>5</maxWeakCount>
      <stageThreshold>-1.2205684185028076e+00</stageThreshold>
      <weakClassifiers>
        <_>
          <internalNodes>
            0 -1 60 -6.1121948063373566e-02</internalNodes>
          <leafValues>
            4.0952381491661072e-01 -7.6986300945281982e-01</leafValues></_>
        <_>
          <internalNodes>
            0 -1 46 1.7924692481756210e-02</internalNodes>
          <leafValues>
            -6.0444635152816772e-01 5.0920498371124268e-01</leafValues></_>
        <_>
          <internalNodes>
            0 -1 28 1.5305736102163792e-02</internalNodes>
          <leafValues>
            -3.5631737112998962e-01 6.7720276117324829e-01</leafValues></_>
        <_>
          <internalNodes>
            0 -1 26 -4.2541097849607468e-02</internalNodes>
          <leafValues>
            7.8524553775787354e-01 -2.6280000805854797e-01</leafValues></_>
        <_>
          <internalNodes>
            0 -1 33 1.2318622320890427e-02</internalNodes>
          <leafValues>
            -2.4848057329654694e-01 7.7285826206207275e-01</leafValues></_></weakClassifiers></_>
    <!-- stage 11 -->
    <_>
      <maxWeakCount>8</maxWeakCount>
      <stageThreshold>-1.8709918260574341e+00</stageThreshold>
      <weakClassifiers>
        <_>
          <internalNodes>
            0 -1 68 -5.1939837634563446e-02</internalNodes>
          <leafValues>
            6.9811320304870605e-01 -7.2972971200942993e-01</leafValues></_>
        <_>
          <internalNodes>
            0 -1 59 -1.0932944715023041e-01</internalNodes>
          <leafValues>
            6.9963115453720093e-01 -4.0847069025039673e-01</leafValues></_>
        <_>
          <internalNodes>
            0 -1 85 -2.6568272151052952e-03</internalNodes>
          <leafValues>
            2.5048485398292542e-01 -5.6202429533004761e-01</leafValues></_>
        <_>
          <internalNodes>
            0 -1 11 1.0204291902482510e-04</internalNodes>
          <leafValues>
            1.9062671065330505e-01 -7.2986817359924316e-01</leafValues></_>
        <_>
          <internalNodes>
            0 -1 51 -8.1288680434226990e-02</internalNodes>
          <leafValues>
            6.5907323360443115e-01 -2.1677094697952271e-01</leafValues></_>
        <_>
          <internalNodes>
            0 -1 57 -8.2522854208946228e-03</internalNodes>
          <leafValues>
            6.8135499954223633e-01 -2.0554813742637634e-01</leafValues></_>
        <_>
          <internalNodes>
            0 -1 5 -5.5145825172076002e-05</internalNodes>
          <leafValues>
            -5.9786045551300049e-01 2.9213541746139526e-01</leafValues></_>
        <_>
          <internalNodes>
            0 -1 58 -1.9785378128290176e-02</internalNodes>
          <leafValues>
            6.8326944112777710e-01 -2.2811742126941681e-01</leafValues></_></weakClassifiers></_>
    <!-- stage 12 -->
    <_>
      <maxWeakCount>7</maxWeakCount>
      <stageThreshold>-1.2733184099197388e+00</stageThreshold>
      <weakClassifiers>
        <_>
          <internalNodes>
            0 -1 36 -3.4360788762569427e-02</internalNodes>
          <leafValues>
            3.4375000000000000e-01 -7.2359156608581543e-01</leafValues></_>
        <_>
          <internalNodes>
            0 -1 12 -4.7415342123713344e-05</internalNodes>
          <leafValues>
            -6.3574957847595215e-01 1.6997568309307098e-01</leafValues></_>
        <_>
          <internalNodes>
            0 -1 74 -8.1077124923467636e-03</internalNodes>
          <leafValues>
            4.2489132285118103e-01 -3.8688215613365173e-01</leafValues></_>
        <_>
          <internalNodes>
            0 -1 65 -6.3790609128773212e-03</internalNodes>
          <leafValues>
            5.5268144607543945e-01 -2.6563602685928345e-01</leafValues></_>
        <_>
          <internalNodes>
            0 -1 80 -1.9111372530460358e-02</internalNodes>
          <leafValues>
            2.3361654579639435e-01 -6.6870713233947754e-01</leafValues></_>
        <_>
          <internalNodes>
            0 -1 22 1.3246823800727725e-04</internalNodes>
          <leafValues>
            2.5399613380432129e-01 -6.2088620662689209e-01</leafValues></_>
        <_>
          <internalNodes>
            0 -1 95 -2.5815716944634914e-03</internalNodes>
          <leafValues>
            4.1063553094863892e-01 -3.4914454817771912e-01</leafValues></_></weakClassifiers></_>
    <!-- stage 13 -->
    <_>
      <maxWeakCount>12</maxWeakCount>
      <stageThreshold>-1.9323713779449463e+00</stageThreshold>
      <weakClassifiers>
        <_>
          <internalNodes>
            0 -1 50 1.1290201544761658e-01</internalNodes>
          <leafValues>
            -7.3920863866806030e-01 2.5000000000000000e-01</leafValues></_>
        <_>
          <internalNodes>
            0 -1 67 3.2513227313756943e-02</internalNodes>
          <leafValues>
            -3.6382368206977844e-01 5.3717762231826782e-01</leafValues></_>
        <_>
          <internalNodes>
            0 -1 14 9.1688118118327111e-05</internalNodes>
          <leafValues>
            2.2262080013751984e-01 -6.1697143316268921e-01</leafValues></_>
        <_>
          <internalNodes>
            0 -1 35 -4.0886051952838898e-02</internalNodes>
          <leafValues>
            -6.6020077466964722e-01 1.7339488863945007e-01</leafValues></_>
        <_>
          <internalNodes>
            0 -1 71 -8.9037958532571793e-03</internalNodes>
          <leafValues>
            4.2019581794738770e-01 -3.0984076857566833e-01</leafValues></_>
        <_>
          <internalNodes>
            0 -1 75 -1.9952893489971757e-04</internalNodes>
          <leafValues>
            -6.6281598806381226e-01 1.8521597981452942e-01</leafValues></_>
        <_>
          <internalNodes>
            0 -1 43 4.2226901277899742e-03</internalNodes>
          <leafValues>
            -2.5794047117233276e-01 4.4479924440383911e-01</leafValues></_>
        <_>
          <internalNodes>
            0 -1 42 -2.3216417059302330e-02</internalNodes>
          <leafValues>
            6.6637235879898071e-01 -2.0756404101848602e-01</leafValues></_>
        <_>
          <internalNodes>
            0 -1 32 1.0100433428306133e-04</internalNodes>
          <leafValues>
            2.2354441881179810e-01 -6.2094146013259888e-01</leafValues></_>
        <_>
          <internalNodes>
            0 -1 31 1.8011180145549588e-05</internalNodes>
          <leafValues>
            -3.8666227459907532e-01 3.4327852725982666e-01</leafValues></_>
        <_>
          <internalNodes>
            0 -1 15 -7.5237272540107369e-05</internalNodes>
          <leafValues>
            -6.7720818519592285e-01 1.8439163267612457e-01</leafValues></_>
        <_>
          <internalNodes>
            0 -1 92 -8.9194050815422088e-05</internalNodes>
          <leafValues>
            -6.2966233491897583e-01 1.8309305608272552e-01</leafValues></_></weakClassifiers></_>
    <!-- stage 14 -->
    <_>
      <maxWeakCount>10</maxWeakCount>
      <stageThreshold>-1.4866701364517212e+00</stageThreshold>
      <weakClassifiers>
        <_>
          <internalNodes>
            0 -1 41 2.4962418247014284e-03</internalNodes>
          <leafValues>
            -7.4464285373687744e-01 4.2500001192092896e-01</leafValues></_>
        <_>
          <internalNodes>
            0 -1 72 1.1261754843872041e-04</internalNodes>
          <leafValues>
            -4.2253553867340088e-01 4.9342688918113708e-01</leafValues></_>
        <_>
          <internalNodes>
            0 -1 0 1.8476494005881250e-05</internalNodes>
          <leafValues>
            -4.7775036096572876e-01 3.4182131290435791e-01</leafValues></_>
        <_>
          <internalNodes>
            0 -1 62 1.8026537145487964e-04</internalNodes>
          <leafValues>
            -2.4450334906578064e-01 6.7150568962097168e-01</leafValues></_>
        <_>
          <internalNodes>
            0 -1 27 1.9817893189610913e-05</internalNodes>
          <leafValues>
            -3.9656162261962891e-01 4.0744730830192566e-01</leafValues></_>
        <_>
          <internalNodes>
            0 -1 47 2.2435854771174490e-04</internalNodes>
          <leafValues>
            -2.1486152708530426e-01 7.3566329479217529e-01</leafValues></_>
        <_>
          <internalNodes>
            0 -1 88 1.3264565495774150e-04</internalNodes>
          <leafValues>
            -1.7529876530170441e-01 6.2756699323654175e-01</leafValues></_>
        <_>
          <internalNodes>
            0 -1 76 -2.2361420094966888e-02</internalNodes>
          <leafValues>
            2.7117374539375305e-01 -5.5149608850479126e-01</leafValues></_>
        <_>
          <internalNodes>
            0 -1 48 -7.2335428558290005e-04</internalNodes>
          <leafValues>
            7.6408803462982178e-01 -2.0834958553314209e-01</leafValues></_>
        <_>
          <internalNodes>
            0 -1 94 -2.1693981252610683e-03</internalNodes>
          <leafValues>
            3.2689216732978821e-01 -4.7702038288116455e-01</leafValues></_></weakClassifiers></_></stages>
  <features>
    <_>
      <rects>
        <_>
          0 0 2 2 -1.</_>
        <_>
          0 1 2 1 2.</_></rects>
      <tilted>0</tilted></_>
    <_>
      <rects>
        <_>
          0 1 2 1 -1.</_>
        <_>
          1 1 1 1 2.</_></rects>
      <tilted>0</tilted></_>
    <_>
      <rects>
        <_>
          0 1 2 3 -1.</_>
        <_>
          0 2 2 1 3.</_></rects>
      <tilted>0</tilted></_>
    <_>
      <rects>
        <_>
          0 9 2 21 -1.</_>
        <_>
          1 9 1 21 2.</_></rects>
      <tilted>0</tilted></_>
    <_>
      <rects>
        <_>
          0 17 2 2 -1.</_>
        <_>
          0 17 1 1 2.</_>
        <_>
          1 18 1 1 2.</_></rects>
      <tilted>0</tilted></_>
    <_>
      <rects>
        <_>
          0 28 3 1 -1.</_>
        <_>
          1 28 1 1 3.</_></rects>
      <tilted>0</tilted></_>
    <_>
      <rects>
        <_>
          0 28 2 4 -1.</_>
        <_>
          0 28 1 2 2.</_>
        <_>
          1 30 1 2 2.</_></rects>
      <tilted>0</tilted></_>
    <_>
      <rects>
        <_>
          0 28 3 3 -1.</_>
        <_>
          1 28 1 3 3.</_></rects>
      <tilted>0</tilted></_>
    <_>
      <rects>
        <_>
          0 29 3 1 -1.</_>
        <_>
          1 29 1 1 3.</_></rects>
      <tilted>0</tilted></_>
    <_>
      <rects>
        <_>
          0 29 3 2 -1.</_>
        <_>
          1 29 1 2 3.</_></rects>
      <tilted>0</tilted></_>
    <_>
      <rects>
        <_>
          0 30 3 1 -1.</_>
        <_>
          1 30 1 1 3.</_></rects>
      <tilted>0</tilted></_>
    <_>
      <rects>
        <_>
          1 0 3 1 -1.</_>
        <_>
          2 0 1 1 3.</_></rects>
      <tilted>0</tilted></_>
    <_>
      <rects>
        <_>
          1 0 3 2 -1.</_>
        <_>
          2 0 1 2 3.</_></rects>
      <tilted>0</tilted></_>
    <_>
      <rects>
        <_>
          1 0 4 3 -1.</_>
        <_>
          3 0 2 3 2.</_></rects>
      <tilted>0</tilted></_>
    <_>
      <rects>
        <_>
          1 2 3 3 -1.</_>
        <_>
          2 2 1 3 3.</_></rects>
      <tilted>0</tilted></_>
    <_>
      <rects>
        <_>
          1 9 1 3 -1.</_>
        <_>
          1 10 1 1 3.</_></rects>
      <tilted>0</tilted></_>
    <_>
      <rects>
        <_>
          1 15 12 4 -1.</_>
        <_>
          5 15 4 4 3.</_></rects>
      <tilted>0</tilted></_>
    <_>
      <rects>
        <_>
          1 29 3 1 -1.</_>
        <_>
          2 29 1 1 3.</_></rects>
      <tilted>0</tilted></_>
    <_>
      <rects>
        <_>
          1 29 3 2 -1.</_>
        <_>
          2 29 1 2 3.</_></rects>
      <tilted>0</tilted></_>
    <_>
      <rects>
        <_>
          1 29 3 3 -1.</_>
        <_>
          2 29 1 3 3.</_></rects>
      <tilted>0</tilted></_>
    <_>
      <rects>
        <_>
          2 0 18 30 -1.</_>
        <_>
          2 10 18 10 3.</_></rects>
      <tilted>0</tilted></_>
    <_>
      <rects>
        <_>
          2 18 21 12 -1.</_>
        <_>
          2 22 21 4 3.</_></rects>
      <tilted>0</tilted></_>
    <_>
      <rects>
        <_>
          2 29 2 3 -1.</_>
        <_>
          2 30 2 1 3.</_></rects>
      <tilted>0</tilted></_>
    <_>
      <rects>
        <_>
          3 13 12 5 -1.</_>
        <_>
          9 13 6 5 2.</_></rects>
      <tilted>0</tilted></_>
    <_>
      <rects>
        <_>
          3 20 2 2 -1.</_>
        <_>
          4 20 1 2 2.</_></rects>
      <tilted>0</tilted></_>
    <_>
      <rects>
        <_>
          4 15 12 6 -1.</_>
        <_>
          10 15 6 6 2.</_></rects>
      <tilted>0</tilted></_>
    <_>
      <rects>
        <_>
          5 7 12 17 -1.</_>
        <_>
          9 7 4 17 3.</_></rects>
      <tilted>0</tilted></_>
    <_>
      <rects>
        <_>
          5 10 2 1 -1.</_>
        <_>
          6 10 1 1 2.</_></rects>
      <tilted>0</tilted></_>
    <_>
      <rects>
        <_>
          5 10 9 16 -1.</_>
        <_>
          8 10 3 16 3.</_></rects>
      <tilted>0</tilted></_>
    <_>
      <rects>
        <_>
          6 0 25 14 -1.</_>
        <_>
          6 7 25 7 2.</_></rects>
      <tilted>0</tilted></_>
    <_>
      <rects>
        <_>
          6 31 3 1 -1.</_>
        <_>
          7 31 1 1 3.</_></rects>
      <tilted>0</tilted></_>
    <_>
      <rects>
        <_>
          7 0 2 1 -1.</_>
        <_>
          8 0 1 1 2.</_></rects>
      <tilted>0</tilted></_>
    <_>
      <rects>
        <_>
          7 1 3 1 -1.</_>
        <_>
          8 1 1 1 3.</_></rects>
      <tilted>0</tilted></_>
    <_>
      <rects>
        <_>
          7 14 9 8 -1.</_>
        <_>
          10 14 3 8 3.</_></rects>
      <tilted>0</tilted></_>
    <_>
      <rects>
        <_>
          8 0 2 1 -1.</_>
        <_>
          9 0 1 1 2.</_></rects>
      <tilted>0</tilted></_>
    <_>
      <rects>
        <_>
          8 0 24 28 -1.</_>
        <_>
          8 0 12 14 2.</_>
        <_>
          20 14 12 14 2.</_></rects>
      <tilted>0</tilted></_>
    <_>
      <rects>
        <_>
          8 14 9 5 -1.</_>
        <_>
          11 14 3 5 3.</_></rects>
      <tilted>0</tilted></_>
    <_>
      <rects>
        <_>
          8 18 12 2 -1.</_>
        <_>
          12 18 4 2 3.</_></rects>
      <tilted>0</tilted></_>
    <_>
      <rects>
        <_>
          8 20 24 12 -1.</_>
        <_>
          8 26 24 6 2.</_></rects>
      <tilted>0</tilted></_>
    <_>
      <rects>
        <_>
          11 1 20 12 -1.</_>
        <_>
          11 5 20 4 3.</_></rects>
      <tilted>0</tilted></_>
    <_>
      <rects>
        <_>
          11 9 7 6 -1.</_>
        <_>
          11 12 7 3 2.</_></rects>
      <tilted>0</tilted></_>
    <_>
      <rects>
        <_>
          11 11 6 1 -1.</_>
        <_>
          13 11 2 1 3.</_></rects>
      <tilted>0</tilted></_>
    <_>
      <rects>
        <_>
          11 11 6 12 -1.</_>
        <_>
          11 15 6 4 3.</_></rects>
      <tilted>0</tilted></_>
    <_>
      <rects>
        <_>
          11 13 10 4 -1.</_>
        <_>
          11 15 10 2 2.</_></rects>
      <tilted>0</tilted></_>
    <_>
      <rects>
        <_>
          11 15 9 9 -1.</_>
        <_>
          11 18 9 3 3.</_></rects>
      <tilted>0</tilted></_>
    <_>
      <rects>
        <_>
          12 0 20 16 -1.</_>
        <_>
          22 0 10 16 2.</_></rects>
      <tilted>0</tilted></_>
    <_>
      <rects>
        <_>
          12 2 20 9 -1.</_>
        <_>
          12 5 20 3 3.</_></rects>
      <tilted>0</tilted></_>
    <_>
      <rects>
        <_>
          12 10 2 2 -1.</_>
        <_>
          12 10 1 1 2.</_>
        <_>
          13 11 1 1 2.</_></rects>
      <tilted>0</tilted></_>
    <_>
      <rects>
        <_>
          12 18 2 4 -1.</_>
        <_>
          12 18 1 2 2.</_>
        <_>
          13 20 1 2 2.</_></rects>
      <tilted>0</tilted></_>
    <_>
      <rects>
        <_>
          13 10 18 12 -1.</_>
        <_>
          13 14 18 4 3.</_></rects>
      <tilted>0</tilted></_>
    <_>
      <rects>
        <_>
          13 22 19 10 -1.</_>
        <_>
          13 27 19 5 2.</_></rects>
      <tilted>0</tilted></_>
    <_>
      <rects>
        <_>
          14 0 17 15 -1.</_>
        <_>
          14 5 17 5 3.</_></rects>
      <tilted>0</tilted></_>
    <_>
      <rects>
        <_>
          14 11 18 14 -1.</_>
        <_>
          20 11 6 14 3.</_></rects>
      <tilted>0</tilted></_>
    <_>
      <rects>
        <_>
          14 14 18 17 -1.</_>
        <_>
          20 14 6 17 3.</_></rects>
      <tilted>0</tilted></_>
    <_>
      <rects>
        <_>
          15 0 16 21 -1.</_>
        <_>
          15 7 16 7 3.</_></rects>
      <tilted>0</tilted></_>
    <_>
      <rects>
        <_>
          15 2 10 9 -1.</_>
        <_>
          15 5 10 3 3.</_></rects>
      <tilted>0</tilted></_>
    <_>
      <rects>
        <_>
          15 7 12 6 -1.</_>
        <_>
          15 9 12 2 3.</_></rects>
      <tilted>0</tilted></_>
    <_>
      <rects>
        <_>
          15 8 2 9 -1.</_>
        <_>
          15 11 2 3 3.</_></rects>
      <tilted>0</tilted></_>
    <_>
      <rects>
        <_>
          15 10 9 14 -1.</_>
        <_>
          18 10 3 14 3.</_></rects>
      <tilted>0</tilted></_>
    <_>
      <rects>
        <_>
          15 14 17 15 -1.</_>
        <_>
          15 19 17 5 3.</_></rects>
      <tilted>0</tilted></_>
    <_>
      <rects>
        <_>
          16 0 16 12 -1.</_>
        <_>
          16 4 16 4 3.</_></rects>
      <tilted>0</tilted></_>
    <_>
      <rects>
        <_>
          16 4 10 9 -1.</_>
        <_>
          16 7 10 3 3.</_></rects>
      <tilted>0</tilted></_>
    <_>
      <rects>
        <_>
          16 11 2 2 -1.</_>
        <_>
          16 11 1 1 2.</_>
        <_>
          17 12 1 1 2.</_></rects>
      <tilted>0</tilted></_>
    <_>
      <rects>
        <_>
          17 5 14 6 -1.</_>
        <_>
          17 7 14 2 3.</_></rects>
      <tilted>0</tilted></_>
    <_>
      <rects>
        <_>
          17 14 10 12 -1.</_>
        <_>
          17 18 10 4 3.</_></rects>
      <tilted>0</tilted></_>
    <_>
      <rects>
        <_>
          18 4 6 18 -1.</_>
        <_>
          20 4 2 18 3.</_></rects>
      <tilted>0</tilted></_>
    <_>
      <rects>
        <_>
          18 14 14 18 -1.</_>
        <_>
          18 20 14 6 3.</_></rects>
      <tilted>0</tilted></_>
    <_>
      <rects>
        <_>
          18 21 12 9 -1.</_>
        <_>
          18 24 12 3 3.</_></rects>
      <tilted>0</tilted></_>
    <_>
      <rects>
        <_>
          18 23 13 9 -1.</_>
        <_>
          18 26 13 3 3.</_></rects>
      <tilted>0</tilted></_>
    <_>
      <rects>
        <_>
          19 0 13 18 -1.</_>
        <_>
          19 6 13 6 3.</_></rects>
      <tilted>0</tilted></_>
    <_>
      <rects>
        <_>
          20 0 12 12 -1.</_>
        <_>
          20 4 12 4 3.</_></rects>
      <tilted>0</tilted></_>
    <_>
      <rects>
        <_>
          20 15 6 8 -1.</_>
        <_>
          23 15 3 8 2.</_></rects>
      <tilted>0</tilted></_>
    <_>
      <rects>
        <_>
          20 16 2 2 -1.</_>
        <_>
          20 16 1 1 2.</_>
        <_>
          21 17 1 1 2.</_></rects>
      <tilted>0</tilted></_>
    <_>
      <rects>
        <_>
          20 29 12 3 -1.</_>
        <_>
          24 29 4 3 3.</_></rects>
      <tilted>0</tilted></_>
    <_>
      <rects>
        <_>
          21 4 4 20 -1.</_>
        <_>
          23 4 2 20 2.</_></rects>
      <tilted>0</tilted></_>
    <_>
      <rects>
        <_>
          21 28 3 3 -1.</_>
        <_>
          22 28 1 3 3.</_></rects>
      <tilted>0</tilted></_>
    <_>
      <rects>
        <_>
          22 4 8 14 -1.</_>
        <_>
          26 4 4 14 2.</_></rects>
      <tilted>0</tilted></_>
    <_>
      <rects>
        <_>
          22 4 10 24 -1.</_>
        <_>
          27 4 5 24 2.</_></rects>
      <tilted>0</tilted></_>
    <_>
      <rects>
        <_>
          22 5 10 24 -1.</_>
        <_>
          27 5 5 24 2.</_></rects>
      <tilted>0</tilted></_>
    <_>
      <rects>
        <_>
          22 8 4 20 -1.</_>
        <_>
          24 8 2 20 2.</_></rects>
      <tilted>0</tilted></_>
    <_>
      <rects>
        <_>
          22 18 10 10 -1.</_>
        <_>
          27 18 5 10 2.</_></rects>
      <tilted>0</tilted></_>
    <_>
      <rects>
        <_>
          24 0 4 14 -1.</_>
        <_>
          26 0 2 14 2.</_></rects>
      <tilted>0</tilted></_>
    <_>
      <rects>
        <_>
          24 0 8 15 -1.</_>
        <_>
          28 0 4 15 2.</_></rects>
      <tilted>0</tilted></_>
    <_>
      <rects>
        <_>
          24 2 8 13 -1.</_>
        <_>
          28 2 4 13 2.</_></rects>
      <tilted>0</tilted></_>
    <_>
      <rects>
        <_>
          24 3 8 28 -1.</_>
        <_>
          28 3 4 28 2.</_></rects>
      <tilted>0</tilted></_>
    <_>
      <rects>
        <_>
          24 18 4 10 -1.</_>
        <_>
          26 18 2 10 2.</_></rects>
      <tilted>0</tilted></_>
    <_>
      <rects>
        <_>
          25 0 6 6 -1.</_>
        <_>
          27 0 2 6 3.</_></rects>
      <tilted>0</tilted></_>
    <_>
      <rects>
        <_>
          25 14 7 18 -1.</_>
        <_>
          25 20 7 6 3.</_></rects>
      <tilted>0</tilted></_>
    <_>
      <rects>
        <_>
          25 21 2 2 -1.</_>
        <_>
          25 21 1 1 2.</_>
        <_>
          26 22 1 1 2.</_></rects>
      <tilted>0</tilted></_>
    <_>
      <rects>
        <_>
          26 0 3 3 -1.</_>
        <_>
          27 0 1 3 3.</_></rects>
      <tilted>0</tilted></_>
    <_>
      <rects>
        <_>
          26 0 3 4 -1.</_>
        <_>
          27 0 1 4 3.</_></rects>
      <tilted>0</tilted></_>
    <_>
      <rects>
        <_>
          26 1 3 3 -1.</_>
        <_>
          27 1 1 3 3.</_></rects>
      <tilted>0</tilted></_>
    <_>
      <rects>
        <_>
          28 0 3 1 -1.</_>
        <_>
          29 0 1 1 3.</_></rects>
      <tilted>0</tilted></_>
    <_>
      <rects>
        <_>
          29 27 2 4 -1.</_>
        <_>
          30 27 1 4 2.</_></rects>
      <tilted>0</tilted></_>
    <_>
      <rects>
        <_>
          30 0 2 32 -1.</_>
        <_>
          31 0 1 32 2.</_></rects>
      <tilted>0</tilted></_>
    <_>
      <rects>
        <_>
          30 1 2 9 -1.</_>
        <_>
          30 4 2 3 3.</_></rects>
      <tilted>0</tilted></_>
    <_>
      <rects>
        <_>
          30 7 2 5 -1.</_>
        <_>
          31 7 1 5 2.</_></rects>
      <tilted>0</tilted></_>
    <_>
      <rects>
        <_>
          30 22 2 4 -1.</_>
        <_>
          31 22 1 4 2.</_></rects>
      <tilted>0</tilted></_></features></cascade>
</opencv_storage>
