<?xml version="1.0"?>
<opencv_storage>
<stage3>
  <maxWeakCount>7</maxWeakCount>
  <stageThreshold>-1.4099943637847900e+00</stageThreshold>
  <weakClassifiers>
    <_>
      <internalNodes>
        0 -1 292070 -1.0178712755441666e-01</internalNodes>
      <leafValues>
        4.4186046719551086e-01 -7.5224417448043823e-01</leafValues></_>
    <_>
      <internalNodes>
        0 -1 368165 2.2053964436054230e-02</internalNodes>
      <leafValues>
        -5.0959819555282593e-01 5.9049528837203979e-01</leafValues></_>
    <_>
      <internalNodes>
        0 -1 31018 1.2265678378753364e-04</internalNodes>
      <leafValues>
        3.3893364667892456e-01 -7.0241022109985352e-01</leafValues></_>
    <_>
      <internalNodes>
        0 -1 360178 3.0089236795902252e-02</internalNodes>
      <leafValues>
        -6.6251128911972046e-01 3.1289830803871155e-01</leafValues></_>
    <_>
      <internalNodes>
        0 -1 24372 -4.1899525967892259e-05</internalNodes>
      <leafValues>
        -7.4300235509872437e-01 2.5167062878608704e-01</leafValues></_>
    <_>
      <internalNodes>
        0 -1 407473 2.3315086960792542e-02</internalNodes>
      <leafValues>
        -3.2073482871055603e-01 6.4662224054336548e-01</leafValues></_>
    <_>
      <internalNodes>
        0 -1 31172 -6.2640167016070336e-05</internalNodes>
      <leafValues>
        -6.4340329170227051e-01 3.1847676634788513e-01</leafValues></_></weakClassifiers></stage3>
</opencv_storage>
