<?xml version="1.0"?>
<opencv_storage>
<stage13>
  <maxWeakCount>12</maxWeakCount>
  <stageThreshold>-1.9323713779449463e+00</stageThreshold>
  <weakClassifiers>
    <_>
      <internalNodes>
        0 -1 346225 1.1290201544761658e-01</internalNodes>
      <leafValues>
        -7.3920863866806030e-01 2.5000000000000000e-01</leafValues></_>
    <_>
      <internalNodes>
        0 -1 423786 3.2513227313756943e-02</internalNodes>
      <leafValues>
        -3.6382368206977844e-01 5.3717762231826782e-01</leafValues></_>
    <_>
      <internalNodes>
        0 -1 34929 9.1688118118327111e-05</internalNodes>
      <leafValues>
        2.2262080013751984e-01 -6.1697143316268921e-01</leafValues></_>
    <_>
      <internalNodes>
        0 -1 223461 -4.0886051952838898e-02</internalNodes>
      <leafValues>
        -6.6020077466964722e-01 1.7339488863945007e-01</leafValues></_>
    <_>
      <internalNodes>
        0 -1 446079 -8.9037958532571793e-03</internalNodes>
      <leafValues>
        4.2019581794738770e-01 -3.0984076857566833e-01</leafValues></_>
    <_>
      <internalNodes>
        0 -1 459281 -1.9952893489971757e-04</internalNodes>
      <leafValues>
        -6.6281598806381226e-01 1.8521597981452942e-01</leafValues></_>
    <_>
      <internalNodes>
        0 -1 303346 4.2226901277899742e-03</internalNodes>
      <leafValues>
        -2.5794047117233276e-01 4.4479924440383911e-01</leafValues></_>
    <_>
      <internalNodes>
        0 -1 301594 -2.3216417059302330e-02</internalNodes>
      <leafValues>
        6.6637235879898071e-01 -2.0756404101848602e-01</leafValues></_>
    <_>
      <internalNodes>
        0 -1 199667 1.0100433428306133e-04</internalNodes>
      <leafValues>
        2.2354441881179810e-01 -6.2094146013259888e-01</leafValues></_>
    <_>
      <internalNodes>
        0 -1 198183 1.8011180145549588e-05</internalNodes>
      <leafValues>
        -3.8666227459907532e-01 3.4327852725982666e-01</leafValues></_>
    <_>
      <internalNodes>
        0 -1 45814 -7.5237272540107369e-05</internalNodes>
      <leafValues>
        -6.7720818519592285e-01 1.8439163267612457e-01</leafValues></_>
    <_>
      <internalNodes>
        0 -1 501712 -8.9194050815422088e-05</internalNodes>
      <leafValues>
        -6.2966233491897583e-01 1.8309305608272552e-01</leafValues></_></weakClassifiers></stage13>
</opencv_storage>
