<?xml version="1.0"?>
<opencv_storage>
<stage11>
  <maxWeakCount>8</maxWeakCount>
  <stageThreshold>-1.8709918260574341e+00</stageThreshold>
  <weakClassifiers>
    <_>
      <internalNodes>
        0 -1 424278 -5.1939837634563446e-02</internalNodes>
      <leafValues>
        6.9811320304870605e-01 -7.2972971200942993e-01</leafValues></_>
    <_>
      <internalNodes>
        0 -1 377000 -1.0932944715023041e-01</internalNodes>
      <leafValues>
        6.9963115453720093e-01 -4.0847069025039673e-01</leafValues></_>
    <_>
      <internalNodes>
        0 -1 483844 -2.6568272151052952e-03</internalNodes>
      <leafValues>
        2.5048485398292542e-01 -5.6202429533004761e-01</leafValues></_>
    <_>
      <internalNodes>
        0 -1 31298 1.0204291902482510e-04</internalNodes>
      <leafValues>
        1.9062671065330505e-01 -7.2986817359924316e-01</leafValues></_>
    <_>
      <internalNodes>
        0 -1 348738 -8.1288680434226990e-02</internalNodes>
      <leafValues>
        6.5907323360443115e-01 -2.1677094697952271e-01</leafValues></_>
    <_>
      <internalNodes>
        0 -1 372589 -8.2522854208946228e-03</internalNodes>
      <leafValues>
        6.8135499954223633e-01 -2.0554813742637634e-01</leafValues></_>
    <_>
      <internalNodes>
        0 -1 30782 -5.5145825172076002e-05</internalNodes>
      <leafValues>
        -5.9786045551300049e-01 2.9213541746139526e-01</leafValues></_>
    <_>
      <internalNodes>
        0 -1 374139 -1.9785378128290176e-02</internalNodes>
      <leafValues>
        6.8326944112777710e-01 -2.2811742126941681e-01</leafValues></_></weakClassifiers></stage11>
</opencv_storage>
