<?xml version="1.0"?>
<opencv_storage>
<stage2>
  <maxWeakCount>8</maxWeakCount>
  <stageThreshold>-1.3497040271759033e+00</stageThreshold>
  <weakClassifiers>
    <_>
      <internalNodes>
        0 -1 366438 -1.5557515621185303e-01</internalNodes>
      <leafValues>
        5.0495052337646484e-01 -7.7434033155441284e-01</leafValues></_>
    <_>
      <internalNodes>
        0 -1 304693 -1.7751237377524376e-02</internalNodes>
      <leafValues>
        6.4576995372772217e-01 -4.9001094698905945e-01</leafValues></_>
    <_>
      <internalNodes>
        0 -1 402060 1.0546891018748283e-02</internalNodes>
      <leafValues>
        -2.7996838092803955e-01 7.6654219627380371e-01</leafValues></_>
    <_>
      <internalNodes>
        0 -1 31014 -1.5798151434864849e-04</internalNodes>
      <leafValues>
        -8.8144880533218384e-01 2.8314805030822754e-01</leafValues></_>
    <_>
      <internalNodes>
        0 -1 61116 -5.3324445616453886e-05</internalNodes>
      <leafValues>
        -6.8418836593627930e-01 2.7150356769561768e-01</leafValues></_>
    <_>
      <internalNodes>
        0 -1 372379 1.0369449853897095e-02</internalNodes>
      <leafValues>
        -3.0176800489425659e-01 7.2781729698181152e-01</leafValues></_>
    <_>
      <internalNodes>
        0 -1 61120 1.8428283510729671e-04</internalNodes>
      <leafValues>
        2.8378626704216003e-01 -7.7809482812881470e-01</leafValues></_>
    <_>
      <internalNodes>
        0 -1 53037 1.0178931057453156e-02</internalNodes>
      <leafValues>
        -3.2668378949165344e-01 6.4980745315551758e-01</leafValues></_></weakClassifiers></stage2>
</opencv_storage>
