<?xml version="1.0"?>
<opencv_storage>
<stage7>
  <maxWeakCount>5</maxWeakCount>
  <stageThreshold>-1.1149998903274536e+00</stageThreshold>
  <weakClassifiers>
    <_>
      <internalNodes>
        0 -1 438143 -9.6079573035240173e-02</internalNodes>
      <leafValues>
        6.6101694107055664e-01 -7.3531991243362427e-01</leafValues></_>
    <_>
      <internalNodes>
        0 -1 61122 -2.8954044682905078e-04</internalNodes>
      <leafValues>
        -8.3521860837936401e-01 1.3040797412395477e-01</leafValues></_>
    <_>
      <internalNodes>
        0 -1 491592 -6.0319493059068918e-04</internalNodes>
      <leafValues>
        -8.2035219669342041e-01 2.0170259475708008e-01</leafValues></_>
    <_>
      <internalNodes>
        0 -1 491951 4.5666389632970095e-04</internalNodes>
      <leafValues>
        2.3173329234123230e-01 -8.4705287218093872e-01</leafValues></_>
    <_>
      <internalNodes>
        0 -1 30788 -2.8304188163019717e-04</internalNodes>
      <leafValues>
        -9.1140490770339966e-01 1.3526235520839691e-01</leafValues></_></weakClassifiers></stage7>
</opencv_storage>
