<?xml version="1.0"?>
<opencv_storage>
<stage5>
  <maxWeakCount>5</maxWeakCount>
  <stageThreshold>-1.3117045164108276e+00</stageThreshold>
  <weakClassifiers>
    <_>
      <internalNodes>
        0 -1 243243 1.1674272269010544e-01</internalNodes>
      <leafValues>
        -7.8145086765289307e-01 4.5945945382118225e-01</leafValues></_>
    <_>
      <internalNodes>
        0 -1 310951 -1.5229326486587524e-01</internalNodes>
      <leafValues>
        -8.2017338275909424e-01 1.4996598660945892e-01</leafValues></_>
    <_>
      <internalNodes>
        0 -1 24372 6.5629734308458865e-05</internalNodes>
      <leafValues>
        3.1888321042060852e-01 -6.6359674930572510e-01</leafValues></_>
    <_>
      <internalNodes>
        0 -1 449229 4.1121691465377808e-03</internalNodes>
      <leafValues>
        2.8978234529495239e-01 -6.5166825056076050e-01</leafValues></_>
    <_>
      <internalNodes>
        0 -1 174337 -9.7669571638107300e-02</internalNodes>
      <leafValues>
        7.8224265575408936e-01 -3.0640527606010437e-01</leafValues></_></weakClassifiers></stage5>
</opencv_storage>
