<?xml version="1.0"?>
<opencv_storage>
<stage5>
  <maxWeakCount>9</maxWeakCount>
  <stageThreshold>-1.7748143672943115e+00</stageThreshold>
  <weakClassifiers>
    <_>
      <internalNodes>
        0 -1 330541 -1.8085011839866638e-01</internalNodes>
      <leafValues>
        3.0555555224418640e-01 -7.2872340679168701e-01</leafValues></_>
    <_>
      <internalNodes>
        0 -1 384183 2.8107734397053719e-02</internalNodes>
      <leafValues>
        -3.9900282025337219e-01 4.3654179573059082e-01</leafValues></_>
    <_>
      <internalNodes>
        0 -1 464449 -4.9509834498167038e-02</internalNodes>
      <leafValues>
        2.4759866297245026e-01 -6.0359317064285278e-01</leafValues></_>
    <_>
      <internalNodes>
        0 -1 485857 -2.7702327817678452e-02</internalNodes>
      <leafValues>
        -8.4910130500793457e-01 1.5906514227390289e-01</leafValues></_>
    <_>
      <internalNodes>
        0 -1 12163 1.9646067812573165e-05</internalNodes>
      <leafValues>
        -4.6469691395759583e-01 3.4114086627960205e-01</leafValues></_>
    <_>
      <internalNodes>
        0 -1 31019 -1.4775684394408017e-04</internalNodes>
      <leafValues>
        -6.8818902969360352e-01 2.0791754126548767e-01</leafValues></_>
    <_>
      <internalNodes>
        0 -1 461506 -2.4565646424889565e-02</internalNodes>
      <leafValues>
        -8.3765172958374023e-01 1.5452530980110168e-01</leafValues></_>
    <_>
      <internalNodes>
        0 -1 342701 -7.8790644183754921e-03</internalNodes>
      <leafValues>
        4.1134849190711975e-01 -3.2311823964118958e-01</leafValues></_>
    <_>
      <internalNodes>
        0 -1 451814 -6.0058292001485825e-03</internalNodes>
      <leafValues>
        -5.7156366109848022e-01 2.2281222045421600e-01</leafValues></_></weakClassifiers></stage5>
</opencv_storage>
