<?xml version="1.0"?>
<opencv_storage>
<stage11>
  <maxWeakCount>9</maxWeakCount>
  <stageThreshold>-1.4323555231094360e+00</stageThreshold>
  <weakClassifiers>
    <_>
      <internalNodes>
        0 -1 458228 -6.9663748145103455e-02</internalNodes>
      <leafValues>
        6.6165411472320557e-01 -5.4781198501586914e-01</leafValues></_>
    <_>
      <internalNodes>
        0 -1 509570 -1.6667294403305277e-05</internalNodes>
      <leafValues>
        2.3120604455471039e-01 -6.9656109809875488e-01</leafValues></_>
    <_>
      <internalNodes>
        0 -1 501745 -4.6851433580741286e-05</internalNodes>
      <leafValues>
        1.9747158885002136e-01 -7.2652959823608398e-01</leafValues></_>
    <_>
      <internalNodes>
        0 -1 311029 -4.0307294577360153e-02</internalNodes>
      <leafValues>
        5.7271397113800049e-01 -2.8435865044593811e-01</leafValues></_>
    <_>
      <internalNodes>
        0 -1 448305 1.5073255635797977e-02</internalNodes>
      <leafValues>
        -2.7030682563781738e-01 6.9724220037460327e-01</leafValues></_>
    <_>
      <internalNodes>
        0 -1 1920 9.1350802904344164e-06</internalNodes>
      <leafValues>
        -3.9436385035514832e-01 4.0181794762611389e-01</leafValues></_>
    <_>
      <internalNodes>
        0 -1 31298 7.6583703048527241e-05</internalNodes>
      <leafValues>
        2.7158054709434509e-01 -6.1696046590805054e-01</leafValues></_>
    <_>
      <internalNodes>
        0 -1 461501 -1.6614414751529694e-02</internalNodes>
      <leafValues>
        2.0112811028957367e-01 -6.9478726387023926e-01</leafValues></_>
    <_>
      <internalNodes>
        0 -1 486225 -2.5591015815734863e-02</internalNodes>
      <leafValues>
        -8.4099036455154419e-01 1.8683415651321411e-01</leafValues></_></weakClassifiers></stage11>
</opencv_storage>
